{
    "levels": [
        {
            "inputs": [
                0.864418938993778,
                0.21113635431470468,
                0.5634519092412217,
                0,
                0.14001953719533122
            ],
            "outputs": [
                1,
                1,
                0,
                0,
                1,
                0
            ],
            "biases": [
                -0.1511793014225285,
                -0.13745718905396725,
                0.17599400825558645,
                -0.016963258774376842,
                -0.39035233755922316,
                0.020260661635656783
            ],
            "weights": [
                [
                    0.1495242542284649,
                    0.06265545056348477,
                    -0.22669030864599785,
                    -0.19763945595655857,
                    -0.3314974518167961,
                    -0.12318350247544979
                ],
                [
                    -0.18135556094839841,
                    0.11206498210926279,
                    0.03131946977555207,
                    -0.2592720569662988,
                    -0.2903765727858122,
                    -0.09289432193126865
                ],
                [
                    -0.32067561705219877,
                    -0.22218435276864631,
                    -0.0480992656556292,
                    0.13816428002248354,
                    0.0662959536167578,
                    -0.1484835445934116
                ],
                [
                    -0.23761628222890496,
                    0.0485198675727496,
                    0.0017367531112667215,
                    0.028837151681652323,
                    0.18001389311907817,
                    -0.058310293312672096
                ],
                [
                    0.08147199728981953,
                    -0.0793815153026532,
                    -0.148390477398337,
                    0.11446474951448143,
                    0.07305261509228661,
                    0.09078175628812056
                ]
            ]
        },
        {
            "inputs": [
                1,
                1,
                0,
                0,
                1,
                0
            ],
            "outputs": [
                1,
                0,
                0,
                0
            ],
            "biases": [
                -0.1228587166511627,
                -0.012974701816117791,
                0.10314767360229384,
                0.1356379108447913
            ],
            "weights": [
                [
                    0.21532954160871673,
                    0.029677209200074398,
                    -0.14083995903622168,
                    -0.19803532905405224
                ],
                [
                    -0.030692184555693575,
                    -0.14618241913154953,
                    0.25557865367264876,
                    0.11056788741381846
                ],
                [
                    -0.17805713907572923,
                    -0.1352691247590812,
                    -0.274025994482475,
                    0.1571426696399187
                ],
                [
                    0.08994192257511398,
                    0.10456367835554874,
                    -0.02126943574028479,
                    0.1696630724114932
                ],
                [
                    -0.19337071638611233,
                    0.02007999051242044,
                    -0.04670552796904756,
                    -0.08175649302294177
                ],
                [
                    0.23034546948494006,
                    0.12353162597013569,
                    -0.04941779436361533,
                    0.10205362689427264
                ]
            ]
        }
    ]
}